<?xml version="1.0"?>
<opencv_storage>
<my_svm type_id="opencv-ml-svm">
  <svm_type>C_SVC</svm_type>
  <kernel><type>RBF</type>
    <gamma>6.9999999999999996e-001</gamma></kernel>
  <C>4.</C>
  <term_criteria><epsilon>2.2204460492503131e-016</epsilon>
    <iterations>100</iterations></term_criteria>
  <var_all>3</var_all>
  <var_count>3</var_count>
  <class_count>2</class_count>
  <class_labels type_id="opencv-matrix">
    <rows>1</rows>
    <cols>2</cols>
    <dt>i</dt>
    <data>
      0 1</data></class_labels>
  <sv_total>173</sv_total>
  <support_vectors>
    <_>
      2.54441679e-001 1.81169704e-001 3.19024384e-001</_>
    <_>
      5.60579538e-001 9.05638710e-002 7.19504237e-001</_>
    <_>
      5.40841639e-001 4.54956517e-002 3.26690555e-001</_>
    <_>
      5.19758344e-001 1.25418067e-001 4.20061111e-001</_>
    <_>
      1.16825841e-001 1.00502938e-001 3.46052259e-001</_>
    <_>
      7.09975481e-001 6.04366288e-002 7.32924402e-001</_>
    <_>
      3.16907883e-001 1.92383435e-002 7.02666789e-002</_>
    <_>
      6.40494406e-001 4.13340218e-002 4.98492420e-001</_>
    <_>
      6.84501886e-001 1.86121222e-002 4.42250758e-001</_>
    <_>
      5.82904637e-001 5.64395711e-002 7.04472780e-001</_>
    <_>
      1.22746214e-001 9.88390669e-002 3.25222403e-001</_>
    <_>
      5.69175720e-001 6.34695217e-002 7.34577000e-001</_>
    <_>
      7.81625926e-001 6.33600876e-002 7.61366904e-001</_>
    <_>
      7.74563193e-001 1.37633368e-001 7.39915609e-001</_>
    <_>
      6.03250027e-001 6.82172701e-002 5.25423706e-001</_>
    <_>
      5.53356886e-001 6.57845885e-002 6.38393641e-001</_>
    <_>
      5.41278183e-001 1.49023056e-001 6.24512136e-001</_>
    <_>
      5.18450022e-001 2.69104652e-002 3.18364233e-001</_>
    <_>
      2.83441663e-001 4.19856422e-002 2.33498350e-001</_>
    <_>
      8.16666663e-001 5.60995676e-002 6.77936614e-001</_>
    <_>
      5.90141654e-001 1.79369494e-001 6.59925818e-001</_>
    <_>
      4.90875006e-001 4.72130924e-002 3.49113911e-001</_>
    <_>
      4.60725009e-001 8.73427466e-002 3.75415027e-001</_>
    <_>
      4.15469915e-001 4.49563637e-002 3.73815835e-001</_>
    <_>
      5.28150022e-001 2.19097808e-002 4.21697795e-001</_>
    <_>
      4.60847855e-001 7.83551410e-002 4.73762631e-001</_>
    <_>
      2.41639316e-001 5.01036160e-002 1.56209618e-001</_>
    <_>
      6.56926692e-001 7.82249272e-002 7.06793308e-001</_>
    <_>
      5.10272145e-001 4.87012304e-002 5.83333313e-001</_>
    <_>
      5.75069249e-001 4.69922535e-002 6.48718357e-001</_>
    <_>
      5.44674993e-001 7.73410723e-002 6.38867617e-001</_>
    <_>
      6.46538436e-001 7.54037872e-002 6.49419427e-001</_>
    <_>
      5.62874973e-001 1.01077762e-002 2.57489562e-001</_>
    <_>
      6.55994594e-001 7.33736232e-002 8.22979212e-001</_>
    <_>
      4.81550753e-001 8.34592730e-002 4.64475453e-001</_>
    <_>
      4.48224992e-001 6.49514645e-002 5.72520375e-001</_>
    <_>
      5.31250000e-001 3.78730111e-002 6.71065092e-001</_>
    <_>
      7.70700336e-001 4.31670435e-002 8.10430706e-001</_>
    <_>
      6.71014369e-001 6.58622533e-002 7.46062338e-001</_>
    <_>
      3.73374075e-001 6.41979054e-002 1.61893219e-001</_>
    <_>
      5.78024983e-001 1.26206979e-001 8.07371736e-001</_>
    <_>
      5.58551311e-001 6.41139150e-002 5.90780139e-001</_>
    <_>
      3.53693604e-001 2.97757275e-002 1.48299322e-001</_>
    <_>
      4.72299993e-001 5.98391406e-002 5.07657290e-001</_>
    <_>
      5.36116660e-001 1.31388679e-002 1.24447718e-001</_>
    <_>
      6.03016675e-001 2.57386137e-002 4.61979568e-001</_>
    <_>
      4.52731490e-001 6.91973120e-002 5.05165577e-001</_>
    <_>
      4.90483344e-001 7.50870705e-002 5.09204566e-001</_>
    <_>
      0. 0. 0.</_>
    <_>
      6.96908712e-001 7.02814981e-002 7.33697176e-001</_>
    <_>
      1.93850249e-001 8.36615190e-002 7.55241573e-001</_>
    <_>
      3.90757591e-001 4.59812656e-002 3.45754534e-001</_>
    <_>
      4.52908337e-001 6.08104318e-002 4.22633678e-001</_>
    <_>
      9.00337517e-001 0. 0.</_>
    <_>
      3.17000002e-001 3.95939350e-002 1.70159161e-001</_>
    <_>
      5.72013378e-001 5.55800386e-002 6.37759864e-001</_>
    <_>
      2.01059163e-001 8.86327308e-003 1.47938564e-001</_>
    <_>
      4.90875006e-001 4.72130924e-002 3.49113911e-001</_>
    <_>
      6.94782972e-001 1.54875573e-002 5.53515434e-001</_>
    <_>
      2.63814479e-001 3.05409059e-002 7.90058151e-002</_>
    <_>
      3.65537703e-001 3.92540097e-002 2.97838122e-001</_>
    <_>
      5.60540557e-001 5.48349507e-002 6.06664419e-001</_>
    <_>
      2.70816654e-001 6.62191659e-002 7.86721051e-001</_>
    <_>
      2.10208327e-001 2.21284136e-001 1.74524739e-001</_>
    <_>
      4.60725009e-001 8.73427466e-002 3.75415027e-001</_>
    <_>
      4.15469915e-001 4.49563637e-002 3.73815835e-001</_>
    <_>
      2.88675010e-001 2.34135408e-002 1.80331588e-001</_>
    <_>
      4.62096542e-001 7.52029493e-002 5.08674443e-001</_>
    <_>
      5.29641032e-001 1.28116474e-001 6.39225185e-001</_>
    <_>
      5.20184278e-001 5.25419191e-002 5.49002767e-001</_>
    <_>
      3.73374075e-001 6.41979054e-002 1.61893219e-001</_>
    <_>
      6.45594478e-001 2.76856311e-002 8.66349459e-001</_>
    <_>
      5.12224972e-001 6.23494908e-002 3.36248785e-001</_>
    <_>
      3.95133555e-001 1.95987169e-002 7.34618902e-002</_>
    <_>
      5.05033314e-001 6.80029318e-002 5.48708260e-001</_>
    <_>
      4.93504256e-001 1.35398388e-001 6.59972787e-001</_>
    <_>
      4.79900002e-001 1.04932509e-001 4.72404033e-001</_>
    <_>
      6.46538436e-001 7.54037872e-002 6.49419427e-001</_>
    <_>
      5.69899976e-001 3.98196280e-002 5.95824182e-001</_>
    <_>
      8.21749985e-001 7.71388635e-002 7.63457894e-001</_>
    <_>
      6.38650000e-001 7.07271770e-002 5.63714683e-001</_>
    <_>
      4.85541672e-001 1.13822557e-001 5.16573071e-001</_>
    <_>
      4.75187957e-001 1.04741961e-001 6.00051582e-001</_>
    <_>
      4.49829698e-001 8.15840662e-002 4.96552706e-001</_>
    <_>
      2.74360895e-001 8.92265290e-002 3.58042151e-001</_>
    <_>
      3.77196789e-001 4.67560813e-002 2.87715942e-001</_>
    <_>
      7.37526774e-001 1.24211892e-001 8.41433048e-001</_>
    <_>
      3.51059824e-001 2.32583210e-002 1.64068446e-001</_>
    <_>
      9.03674841e-001 8.22394097e-004 1.47940069e-001</_>
    <_>
      4.53693599e-001 7.17459619e-002 6.68685317e-001</_>
    <_>
      7.43195474e-001 5.54119982e-002 7.91310668e-001</_>
    <_>
      5.61654150e-001 5.88306859e-002 6.32237554e-001</_>
    <_>
      4.26165402e-001 5.58776297e-002 5.72930932e-001</_>
    <_>
      1.46738723e-001 1.34588361e-001 4.12309051e-001</_>
    <_>
      4.68775332e-001 1.09775871e-001 3.46051633e-001</_>
    <_>
      5.45263171e-001 7.91953579e-002 7.22327948e-001</_>
    <_>
      5.31435370e-001 3.01057193e-002 3.67868841e-001</_>
    <_>
      3.95530283e-001 3.88823412e-002 2.90879667e-001</_>
    <_>
      5.25090933e-001 9.20270756e-002 3.76168609e-001</_>
    <_>
      7.24562049e-001 7.51724988e-002 8.31096828e-001</_>
    <_>
      3.97731125e-001 2.84315124e-002 2.60452956e-001</_>
    <_>
      4.66108739e-001 3.05910856e-002 2.74705023e-001</_>
    <_>
      4.87939775e-001 1.03476085e-001 3.76977563e-001</_>
    <_>
      5.53975582e-001 1.05083017e-002 2.16349542e-001</_>
    <_>
      4.36853409e-001 9.64645743e-002 2.31561884e-001</_>
    <_>
      4.61735368e-001 4.82372865e-002 4.25528020e-001</_>
    <_>
      5.10028183e-001 8.04043561e-002 3.34222227e-001</_>
    <_>
      8.63270700e-001 1.97336767e-002 8.33718240e-001</_>
    <_>
      5.26184201e-001 4.77320105e-002 6.83479130e-001</_>
    <_>
      5.40928304e-001 4.13079709e-002 4.21693206e-001</_>
    <_>
      7.83749998e-001 6.03805482e-002 7.96875000e-001</_>
    <_>
      4.60798860e-001 5.42664528e-002 5.65517247e-001</_>
    <_>
      3.61484975e-001 4.20902930e-002 2.74712056e-001</_>
    <_>
      6.54859006e-001 7.30741471e-002 7.12212980e-001</_>
    <_>
      6.34632289e-001 1.37998194e-001 6.57909870e-001</_>
    <_>
      6.40798867e-001 1.25721559e-001 6.74126983e-001</_>
    <_>
      3.83486837e-001 1.40283257e-001 2.25423485e-001</_>
    <_>
      4.79871154e-001 5.29790893e-002 4.93191034e-001</_>
    <_>
      6.04003787e-001 5.84672019e-002 6.82460964e-001</_>
    <_>
      4.92734969e-001 6.67145848e-002 6.02561831e-001</_>
    <_>
      4.67509389e-001 6.66341558e-002 6.19029641e-001</_>
    <_>
      9.24708664e-001 2.14681793e-002 8.12788904e-001</_>
    <_>
      2.70657808e-001 2.56428551e-002 1.92246005e-001</_>
    <_>
      4.22556192e-001 3.99033464e-002 4.38276112e-001</_>
    <_>
      3.48427474e-001 3.59796844e-002 2.25905240e-001</_>
    <_>
      9.52640951e-001 6.22480456e-003 7.35981286e-001</_>
    <_>
      5.64539492e-001 6.29226267e-002 6.77598655e-001</_>
    <_>
      6.36776328e-001 6.47542179e-002 7.38959908e-001</_>
    <_>
      4.73383456e-001 5.04174121e-002 4.45531994e-001</_>
    <_>
      3.81845713e-001 1.14794344e-001 4.13456142e-001</_>
    <_>
      5.36936104e-001 7.62866363e-002 6.42728090e-001</_>
    <_>
      4.34210539e-001 1.37421384e-001 3.88179004e-001</_>
    <_>
      3.37146252e-001 4.50983718e-002 2.48910993e-001</_>
    <_>
      4.59921777e-001 4.42265570e-002 3.37042928e-001</_>
    <_>
      5.55751860e-001 6.19055070e-002 5.64810395e-001</_>
    <_>
      4.68890965e-001 6.69556037e-002 6.27443552e-001</_>
    <_>
      6.39219940e-001 1.65365729e-002 1.34514987e-001</_>
    <_>
      4.64924812e-001 1.20748609e-001 3.89139295e-001</_>
    <_>
      6.23496234e-001 5.37715517e-002 8.12257946e-001</_>
    <_>
      8.45721543e-001 9.15273502e-002 8.36267650e-001</_>
    <_>
      8.47221434e-001 8.68403469e-004 1.89320385e-001</_>
    <_>
      8.17890584e-001 3.47574204e-002 8.02372694e-001</_>
    <_>
      4.88703012e-001 6.82583302e-002 7.27422655e-001</_>
    <_>
      4.93406892e-001 1.68953575e-002 1.56451613e-001</_>
    <_>
      4.93180186e-001 1.96666736e-002 1.88672245e-001</_>
    <_>
      4.02237833e-001 4.29495461e-002 3.49406809e-001</_>
    <_>
      2.70608604e-001 4.93896455e-002 2.95798331e-001</_>
    <_>
      4.56458300e-001 7.07957149e-002 4.27647442e-001</_>
    <_>
      8.74765038e-001 5.15336078e-003 8.56630802e-001</_>
    <_>
      5.56766927e-001 6.26299456e-002 5.09861529e-001</_>
    <_>
      2.87244499e-001 2.65595429e-002 1.48478106e-001</_>
    <_>
      4.21516865e-001 5.04953638e-002 3.66774708e-001</_>
    <_>
      7.35225558e-001 5.20580336e-002 7.68690705e-001</_>
    <_>
      4.63312805e-001 3.72356772e-002 4.74439234e-001</_>
    <_>
      2.93308258e-001 8.16725269e-002 4.63585943e-001</_>
    <_>
      2.98421055e-001 1.41380519e-001 2.91820347e-001</_>
    <_>
      5.66879690e-001 6.89002126e-002 6.93020880e-001</_>
    <_>
      4.88637209e-001 6.90684840e-002 6.27444088e-001</_>
    <_>
      3.77998114e-001 3.35108526e-002 3.35513085e-001</_>
    <_>
      4.77076143e-001 2.59924009e-002 3.23929429e-001</_>
    <_>
      3.83298069e-001 4.08055894e-002 2.58530378e-001</_>
    <_>
      4.95381862e-001 5.91420680e-002 4.38863367e-001</_>
    <_>
      4.15772468e-001 4.92407829e-002 4.29678202e-001</_>
    <_>
      3.23534966e-001 4.84011397e-002 2.12749094e-001</_>
    <_>
      7.57481217e-001 7.16800392e-002 7.75713503e-001</_>
    <_>
      5.85300744e-001 8.24125037e-002 6.94706678e-001</_>
    <_>
      3.33245188e-001 3.84879522e-002 2.46066615e-001</_>
    <_>
      7.40347743e-001 6.75599575e-002 7.78843284e-001</_>
    <_>
      4.67509389e-001 6.66734576e-002 6.17519379e-001</_>
    <_>
      5.64949811e-001 7.91769698e-002 3.98616523e-001</_>
    <_>
      4.55795884e-001 6.51751757e-002 4.64380354e-001</_>
    <_>
      4.51043010e-001 1.42222226e-001 4.57010299e-001</_>
    <_>
      7.70704865e-001 5.75156584e-002 8.24051082e-001</_></support_vectors>
  <decision_functions>
    <_>
      <sv_count>173</sv_count>
      <rho>-8.5868201314779971e-002</rho>
      <alpha>
        4. 4. 4. 4. 4. 4. 4. 4. 4. 4. 3.1439126318202217e+000 4. 4. 4.
        4. 4. 4. 4. 3.9298581588967583e+000 4. 4. 4. 4. 4. 4. 4.
        3.9013206340051871e+000 4. 4. 4. 4. 4. 4. 4. 4. 4. 4. 4. 4. 4.
        4. 4. 4. 4. 4. 4. 4. 4. 1.0667349695055832e+000 4.
        3.6650744970565108e+000 4. 4. 4. 4. 4. 3.5035372526282940e+000
        4. 4. 4. 4. 4. 3.3492550294348922e-001 4. 4. 4.
        3.7035702742204410e+000 4. 4. 4. 4. 4. 4. 4. 4. 4. 4. 4. 4. 4.
        4. 4. 4. 4. 4. 4. 4. -4. -4. -4. -4. -4. -4. -4. -4. -4. -4. -4.
        -4. -4. -4. -4. -4. -4. -4. -4. -4. -4. -4. -4. -4. -4. -4.
        -3.7035702742204410e+000 -4. -4. -4. -4. -4. -4. -4. -4. -4. -4.
        -4. -7.7210709145209977e-001 -4. -4. -4. -4. -4. -4. -4. -4. -4.
        -4. -4. -4. -4. -4. -4. -3.8311787929019454e+000 -4. -4. -4. -4.
        -4. -4. -4. -4. -4. -4. -2.9420777625019991e+000 -4. -4. -4. -4.
        -4. -4. -4. -4. -4. -4. -4. -4. -4. -4. -4. -4. -4. -4. -4. -4.</alpha>
      <index>
        0 1 2 3 4 5 6 7 8 9 10 11 12 13 14 15 16 17 18 19 20 21 22 23 24
        25 26 27 28 29 30 31 32 33 34 35 36 37 38 39 40 41 42 43 44 45
        46 47 48 49 50 51 52 53 54 55 56 57 58 59 60 61 62 63 64 65 66
        67 68 69 70 71 72 73 74 75 76 77 78 79 80 81 82 83 84 85 86 87
        88 89 90 91 92 93 94 95 96 97 98 99 100 101 102 103 104 105 106
        107 108 109 110 111 112 113 114 115 116 117 118 119 120 121 122
        123 124 125 126 127 128 129 130 131 132 133 134 135 136 137 138
        139 140 141 142 143 144 145 146 147 148 149 150 151 152 153 154
        155 156 157 158 159 160 161 162 163 164 165 166 167 168 169 170
        171 172</index></_></decision_functions></my_svm>
</opencv_storage>
